<?xml version="1.0"?>
<opencv_storage>
<cascade>
  <stageType>BOOST</stageType>
  <featureType>HAAR</featureType>
  <height>32</height>
  <width>32</width>
  <stageParams>
    <boostType>GAB</boostType>
    <minHitRate>9.9500000476837158e-01</minHitRate>
    <maxFalseAlarm>5.0000000000000000e-01</maxFalseAlarm>
    <weightTrimRate>9.4999998807907104e-01</weightTrimRate>
    <maxDepth>1</maxDepth>
    <maxWeakCount>100</maxWeakCount></stageParams>
  <featureParams>
    <maxCatCount>0</maxCatCount>
    <featSize>1</featSize>
    <mode>BASIC</mode></featureParams>
  <stageNum>9</stageNum>
  <stages>
    <!-- stage 0 -->
    <_>
      <maxWeakCount>4</maxWeakCount>
      <stageThreshold>-1.9696013927459717e+00</stageThreshold>
      <weakClassifiers>
        <_>
          <internalNodes>
            0 -1 6 3.0615258216857910e-01</internalNodes>
          <leafValues>
            -9.4536584615707397e-01 8.9655172824859619e-01</leafValues></_>
        <_>
          <internalNodes>
            0 -1 5 -2.9324118047952652e-02</internalNodes>
          <leafValues>
            6.6259831190109253e-01 -9.0974354743957520e-01</leafValues></_>
        <_>
          <internalNodes>
            0 -1 13 9.4693817198276520e-02</internalNodes>
          <leafValues>
            -8.2682502269744873e-01 5.9380000829696655e-01</leafValues></_>
        <_>
          <internalNodes>
            0 -1 20 -7.1511967689730227e-06</internalNodes>
          <leafValues>
            7.1233302354812622e-01 -8.0785572528839111e-01</leafValues></_></weakClassifiers></_>
    <!-- stage 1 -->
    <_>
      <maxWeakCount>3</maxWeakCount>
      <stageThreshold>-1.3305494785308838e+00</stageThreshold>
      <weakClassifiers>
        <_>
          <internalNodes>
            0 -1 8 2.2957277297973633e-01</internalNodes>
          <leafValues>
            -9.2556315660476685e-01 4.5161288976669312e-01</leafValues></_>
        <_>
          <internalNodes>
            0 -1 15 8.4197912365198135e-03</internalNodes>
          <leafValues>
            -8.5962343215942383e-01 5.1568472385406494e-01</leafValues></_>
        <_>
          <internalNodes>
            0 -1 28 -4.7653645742684603e-04</internalNodes>
          <leafValues>
            4.8696056008338928e-01 -9.2067098617553711e-01</leafValues></_></weakClassifiers></_>
    <!-- stage 2 -->
    <_>
      <maxWeakCount>3</maxWeakCount>
      <stageThreshold>-1.4384343624114990e+00</stageThreshold>
      <weakClassifiers>
        <_>
          <internalNodes>
            0 -1 12 4.9215056002140045e-02</internalNodes>
          <leafValues>
            -9.4438725709915161e-01 1.4677386910022516e-17</leafValues></_>
        <_>
          <internalNodes>
            0 -1 3 3.7577673792839050e-02</internalNodes>
          <leafValues>
            -8.5699516534805298e-01 3.6563527584075928e-01</leafValues></_>
        <_>
          <internalNodes>
            0 -1 16 2.6043146135634743e-05</internalNodes>
          <leafValues>
            -8.5968238115310669e-01 4.4840398430824280e-01</leafValues></_></weakClassifiers></_>
    <!-- stage 3 -->
    <_>
      <maxWeakCount>3</maxWeakCount>
      <stageThreshold>-1.6332948207855225e+00</stageThreshold>
      <weakClassifiers>
        <_>
          <internalNodes>
            0 -1 31 -3.4458599984645844e-02</internalNodes>
          <leafValues>
            -3.1578946858644485e-02 -9.2510122060775757e-01</leafValues></_>
        <_>
          <internalNodes>
            0 -1 32 -1.3634557035402395e-05</internalNodes>
          <leafValues>
            2.0567010343074799e-01 -8.7156027555465698e-01</leafValues></_>
        <_>
          <internalNodes>
            0 -1 36 1.4075212675379589e-05</internalNodes>
          <leafValues>
            -7.3015558719635010e-01 4.2703408002853394e-01</leafValues></_></weakClassifiers></_>
    <!-- stage 4 -->
    <_>
      <maxWeakCount>5</maxWeakCount>
      <stageThreshold>-1.9365612268447876e+00</stageThreshold>
      <weakClassifiers>
        <_>
          <internalNodes>
            0 -1 9 3.1160768121480942e-02</internalNodes>
          <leafValues>
            -9.2307692766189575e-01 -2.3966942727565765e-01</leafValues></_>
        <_>
          <internalNodes>
            0 -1 27 -3.8473382592201233e-03</internalNodes>
          <leafValues>
            2.8596287965774536e-01 -7.4526447057723999e-01</leafValues></_>
        <_>
          <internalNodes>
            0 -1 24 -3.1217896321322769e-05</internalNodes>
          <leafValues>
            3.5417056083679199e-01 -7.9224586486816406e-01</leafValues></_>
        <_>
          <internalNodes>
            0 -1 29 1.7066198051907122e-04</internalNodes>
          <leafValues>
            -7.0130419731140137e-01 4.6299478411674500e-01</leafValues></_>
        <_>
          <internalNodes>
            0 -1 23 -3.2178931869566441e-03</internalNodes>
          <leafValues>
            5.5661416053771973e-01 -6.0449373722076416e-01</leafValues></_></weakClassifiers></_>
    <!-- stage 5 -->
    <_>
      <maxWeakCount>5</maxWeakCount>
      <stageThreshold>-1.6690427064895630e+00</stageThreshold>
      <weakClassifiers>
        <_>
          <internalNodes>
            0 -1 1 -9.6936579793691635e-03</internalNodes>
          <leafValues>
            -3.6470589041709900e-01 -9.3647319078445435e-01</leafValues></_>
        <_>
          <internalNodes>
            0 -1 30 -2.2265216102823615e-05</internalNodes>
          <leafValues>
            1.0053656250238419e-01 -8.2010436058044434e-01</leafValues></_>
        <_>
          <internalNodes>
            0 -1 11 7.7009561937302351e-04</internalNodes>
          <leafValues>
            -5.8842742443084717e-01 5.1535058021545410e-01</leafValues></_>
        <_>
          <internalNodes>
            0 -1 18 2.0452760509215295e-05</internalNodes>
          <leafValues>
            -7.0733618736267090e-01 4.4163924455642700e-01</leafValues></_>
        <_>
          <internalNodes>
            0 -1 2 -4.0470980107784271e-02</internalNodes>
          <leafValues>
            4.6265745162963867e-01 -6.6908586025238037e-01</leafValues></_></weakClassifiers></_>
    <!-- stage 6 -->
    <_>
      <maxWeakCount>6</maxWeakCount>
      <stageThreshold>-1.7814135551452637e+00</stageThreshold>
      <weakClassifiers>
        <_>
          <internalNodes>
            0 -1 0 1.9281032681465149e-01</internalNodes>
          <leafValues>
            -8.7547171115875244e-01 4.7826087474822998e-01</leafValues></_>
        <_>
          <internalNodes>
            0 -1 17 -3.2226374605670571e-04</internalNodes>
          <leafValues>
            2.7215713262557983e-01 -7.1642792224884033e-01</leafValues></_>
        <_>
          <internalNodes>
            0 -1 21 2.8221820684848353e-05</internalNodes>
          <leafValues>
            -7.4537980556488037e-01 2.9193550348281860e-01</leafValues></_>
        <_>
          <internalNodes>
            0 -1 4 1.3972453773021698e-01</internalNodes>
          <leafValues>
            -5.4274743795394897e-01 5.5421429872512817e-01</leafValues></_>
        <_>
          <internalNodes>
            0 -1 10 3.8603139109909534e-03</internalNodes>
          <leafValues>
            -4.0284836292266846e-01 6.3459885120391846e-01</leafValues></_>
        <_>
          <internalNodes>
            0 -1 19 -3.1896829023025930e-04</internalNodes>
          <leafValues>
            5.3162592649459839e-01 -5.2443861961364746e-01</leafValues></_></weakClassifiers></_>
    <!-- stage 7 -->
    <_>
      <maxWeakCount>5</maxWeakCount>
      <stageThreshold>-1.7379517555236816e+00</stageThreshold>
      <weakClassifiers>
        <_>
          <internalNodes>
            0 -1 35 -6.9548003375530243e-03</internalNodes>
          <leafValues>
            -6.4516127109527588e-02 -8.9422136545181274e-01</leafValues></_>
        <_>
          <internalNodes>
            0 -1 22 -5.0373200792819262e-05</internalNodes>
          <leafValues>
            -5.7104270905256271e-02 -8.5201042890548706e-01</leafValues></_>
        <_>
          <internalNodes>
            0 -1 14 1.1356907634763047e-05</internalNodes>
          <leafValues>
            -6.2542515993118286e-01 3.2537999749183655e-01</leafValues></_>
        <_>
          <internalNodes>
            0 -1 33 -1.8986305803991854e-05</internalNodes>
          <leafValues>
            3.4419044852256775e-01 -6.7517143487930298e-01</leafValues></_>
        <_>
          <internalNodes>
            0 -1 25 -8.0890080425888300e-04</internalNodes>
          <leafValues>
            6.2914860248565674e-01 -4.3683469295501709e-01</leafValues></_></weakClassifiers></_>
    <!-- stage 8 -->
    <_>
      <maxWeakCount>5</maxWeakCount>
      <stageThreshold>-1.6951913833618164e+00</stageThreshold>
      <weakClassifiers>
        <_>
          <internalNodes>
            0 -1 34 -3.7258855998516083e-02</internalNodes>
          <leafValues>
            3.1034481525421143e-01 -8.7855786085128784e-01</leafValues></_>
        <_>
          <internalNodes>
            0 -1 7 -5.2948135882616043e-02</internalNodes>
          <leafValues>
            5.6759661436080933e-01 -5.9968709945678711e-01</leafValues></_>
        <_>
          <internalNodes>
            0 -1 38 1.4114281839283649e-05</internalNodes>
          <leafValues>
            -6.8748706579208374e-01 3.6492472887039185e-01</leafValues></_>
        <_>
          <internalNodes>
            0 -1 26 -1.0921763256192207e-02</internalNodes>
          <leafValues>
            3.1964820623397827e-01 -7.3765981197357178e-01</leafValues></_>
        <_>
          <internalNodes>
            0 -1 37 -2.9267615173012018e-04</internalNodes>
          <leafValues>
            -9.0151935815811157e-01 3.1748041510581970e-01</leafValues></_></weakClassifiers></_></stages>
  <features>
    <_>
      <rects>
        <_>
          0 6 12 19 -1.</_>
        <_>
          6 6 6 19 2.</_></rects>
      <tilted>0</tilted></_>
    <_>
      <rects>
        <_>
          0 9 9 3 -1.</_>
        <_>
          3 9 3 3 3.</_></rects>
      <tilted>0</tilted></_>
    <_>
      <rects>
        <_>
          0 19 15 12 -1.</_>
        <_>
          5 19 5 12 3.</_></rects>
      <tilted>0</tilted></_>
    <_>
      <rects>
        <_>
          1 0 14 14 -1.</_>
        <_>
          1 0 7 7 2.</_>
        <_>
          8 7 7 7 2.</_></rects>
      <tilted>0</tilted></_>
    <_>
      <rects>
        <_>
          2 4 12 21 -1.</_>
        <_>
          8 4 6 21 2.</_></rects>
      <tilted>0</tilted></_>
    <_>
      <rects>
        <_>
          2 7 9 14 -1.</_>
        <_>
          5 7 3 14 3.</_></rects>
      <tilted>0</tilted></_>
    <_>
      <rects>
        <_>
          2 8 27 17 -1.</_>
        <_>
          11 8 9 17 3.</_></rects>
      <tilted>0</tilted></_>
    <_>
      <rects>
        <_>
          2 15 12 6 -1.</_>
        <_>
          6 15 4 6 3.</_></rects>
      <tilted>0</tilted></_>
    <_>
      <rects>
        <_>
          2 18 30 8 -1.</_>
        <_>
          12 18 10 8 3.</_></rects>
      <tilted>0</tilted></_>
    <_>
      <rects>
        <_>
          5 20 8 5 -1.</_>
        <_>
          9 20 4 5 2.</_></rects>
      <tilted>0</tilted></_>
    <_>
      <rects>
        <_>
          6 2 8 4 -1.</_>
        <_>
          6 2 4 2 2.</_>
        <_>
          10 4 4 2 2.</_></rects>
      <tilted>0</tilted></_>
    <_>
      <rects>
        <_>
          6 5 2 6 -1.</_>
        <_>
          6 5 1 3 2.</_>
        <_>
          7 8 1 3 2.</_></rects>
      <tilted>0</tilted></_>
    <_>
      <rects>
        <_>
          6 18 8 10 -1.</_>
        <_>
          10 18 4 10 2.</_></rects>
      <tilted>0</tilted></_>
    <_>
      <rects>
        <_>
          7 10 21 17 -1.</_>
        <_>
          14 10 7 17 3.</_></rects>
      <tilted>0</tilted></_>
    <_>
      <rects>
        <_>
          7 30 1 2 -1.</_>
        <_>
          7 31 1 1 2.</_></rects>
      <tilted>0</tilted></_>
    <_>
      <rects>
        <_>
          8 7 15 4 -1.</_>
        <_>
          8 9 15 2 2.</_></rects>
      <tilted>0</tilted></_>
    <_>
      <rects>
        <_>
          10 23 2 1 -1.</_>
        <_>
          11 23 1 1 2.</_></rects>
      <tilted>0</tilted></_>
    <_>
      <rects>
        <_>
          11 1 1 4 -1.</_>
        <_>
          11 3 1 2 2.</_></rects>
      <tilted>0</tilted></_>
    <_>
      <rects>
        <_>
          12 9 1 2 -1.</_>
        <_>
          12 10 1 1 2.</_></rects>
      <tilted>0</tilted></_>
    <_>
      <rects>
        <_>
          12 11 6 9 -1.</_>
        <_>
          12 14 6 3 3.</_></rects>
      <tilted>0</tilted></_>
    <_>
      <rects>
        <_>
          12 24 1 2 -1.</_>
        <_>
          12 25 1 1 2.</_></rects>
      <tilted>0</tilted></_>
    <_>
      <rects>
        <_>
          13 24 2 2 -1.</_>
        <_>
          14 24 1 2 2.</_></rects>
      <tilted>0</tilted></_>
    <_>
      <rects>
        <_>
          13 25 1 4 -1.</_>
        <_>
          13 27 1 2 2.</_></rects>
      <tilted>0</tilted></_>
    <_>
      <rects>
        <_>
          15 4 15 2 -1.</_>
        <_>
          20 4 5 2 3.</_></rects>
      <tilted>0</tilted></_>
    <_>
      <rects>
        <_>
          16 26 1 4 -1.</_>
        <_>
          16 28 1 2 2.</_></rects>
      <tilted>0</tilted></_>
    <_>
      <rects>
        <_>
          17 7 8 2 -1.</_>
        <_>
          17 7 4 1 2.</_>
        <_>
          21 8 4 1 2.</_></rects>
      <tilted>0</tilted></_>
    <_>
      <rects>
        <_>
          17 10 10 8 -1.</_>
        <_>
          22 10 5 8 2.</_></rects>
      <tilted>0</tilted></_>
    <_>
      <rects>
        <_>
          19 5 6 6 -1.</_>
        <_>
          19 7 6 2 3.</_></rects>
      <tilted>0</tilted></_>
    <_>
      <rects>
        <_>
          19 22 1 10 -1.</_>
        <_>
          19 27 1 5 2.</_></rects>
      <tilted>0</tilted></_>
    <_>
      <rects>
        <_>
          20 20 6 3 -1.</_>
        <_>
          22 20 2 3 3.</_></rects>
      <tilted>0</tilted></_>
    <_>
      <rects>
        <_>
          20 27 2 1 -1.</_>
        <_>
          21 27 1 1 2.</_></rects>
      <tilted>0</tilted></_>
    <_>
      <rects>
        <_>
          21 14 9 12 -1.</_>
        <_>
          24 14 3 12 3.</_></rects>
      <tilted>0</tilted></_>
    <_>
      <rects>
        <_>
          21 20 2 1 -1.</_>
        <_>
          22 20 1 1 2.</_></rects>
      <tilted>0</tilted></_>
    <_>
      <rects>
        <_>
          21 24 2 1 -1.</_>
        <_>
          22 24 1 1 2.</_></rects>
      <tilted>0</tilted></_>
    <_>
      <rects>
        <_>
          23 6 4 20 -1.</_>
        <_>
          25 6 2 20 2.</_></rects>
      <tilted>0</tilted></_>
    <_>
      <rects>
        <_>
          23 17 6 2 -1.</_>
        <_>
          25 17 2 2 3.</_></rects>
      <tilted>0</tilted></_>
    <_>
      <rects>
        <_>
          29 29 1 2 -1.</_>
        <_>
          29 30 1 1 2.</_></rects>
      <tilted>0</tilted></_>
    <_>
      <rects>
        <_>
          31 4 1 18 -1.</_>
        <_>
          31 10 1 6 3.</_></rects>
      <tilted>0</tilted></_>
    <_>
      <rects>
        <_>
          31 30 1 2 -1.</_>
        <_>
          31 31 1 1 2.</_></rects>
      <tilted>0</tilted></_></features></cascade>
</opencv_storage>
